<?xml version="1.0"?>
<opencv_storage>
<cascade>
  <stageType>BOOST</stageType>
  <featureType>HAAR</featureType>
  <height>24</height>
  <width>24</width>
  <stageParams>
    <boostType>GAB</boostType>
    <minHitRate>9.9500000476837158e-01</minHitRate>
    <maxFalseAlarm>5.0000000000000000e-01</maxFalseAlarm>
    <weightTrimRate>9.4999999999999996e-01</weightTrimRate>
    <maxDepth>1</maxDepth>
    <maxWeakCount>100</maxWeakCount></stageParams>
  <featureParams>
    <maxCatCount>0</maxCatCount>
    <featSize>1</featSize>
    <mode>BASIC</mode></featureParams>
  <stageNum>18</stageNum>
  <stages>
    <!-- stage 0 -->
    <_>
      <maxWeakCount>1</maxWeakCount>
      <stageThreshold>9.6721309423446655e-01</stageThreshold>
      <weakClassifiers>
        <_>
          <internalNodes>
            0 -1 2 -6.6268123686313629e-02</internalNodes>
          <leafValues>
            -1. 9.6721309423446655e-01</leafValues></_></weakClassifiers></_>
    <!-- stage 1 -->
    <_>
      <maxWeakCount>2</maxWeakCount>
      <stageThreshold>-1.3693226873874664e-01</stageThreshold>
      <weakClassifiers>
        <_>
          <internalNodes>
            0 -1 21 -1.1656825989484787e-01</internalNodes>
          <leafValues>
            8.3333331346511841e-01 -9.1666668653488159e-01</leafValues></_>
        <_>
          <internalNodes>
            0 -1 17 3.1023593619465828e-03</internalNodes>
          <leafValues>
            -9.6778273582458496e-01 7.7973437309265137e-01</leafValues></_></weakClassifiers></_>
    <!-- stage 2 -->
    <_>
      <maxWeakCount>3</maxWeakCount>
      <stageThreshold>-1.0568723678588867e+00</stageThreshold>
      <weakClassifiers>
        <_>
          <internalNodes>
            0 -1 30 -1.3050523586571217e-02</internalNodes>
          <leafValues>
            6.9014084339141846e-01 -9.1891890764236450e-01</leafValues></_>
        <_>
          <internalNodes>
            0 -1 8 1.3233365025371313e-03</internalNodes>
          <leafValues>
            -8.1651139259338379e-01 7.1122533082962036e-01</leafValues></_>
        <_>
          <internalNodes>
            0 -1 28 -9.1233737766742706e-03</internalNodes>
          <leafValues>
            6.7855799198150635e-01 -8.6125624179840088e-01</leafValues></_></weakClassifiers></_>
    <!-- stage 3 -->
    <_>
      <maxWeakCount>2</maxWeakCount>
      <stageThreshold>-3.0793013051152229e-02</stageThreshold>
      <weakClassifiers>
        <_>
          <internalNodes>
            0 -1 10 -6.0855299234390259e-03</internalNodes>
          <leafValues>
            8.3050847053527832e-01 -7.9069769382476807e-01</leafValues></_>
        <_>
          <internalNodes>
            0 -1 9 2.9967018053866923e-04</internalNodes>
          <leafValues>
            -8.4308063983917236e-01 7.5990468263626099e-01</leafValues></_></weakClassifiers></_>
    <!-- stage 4 -->
    <_>
      <maxWeakCount>2</maxWeakCount>
      <stageThreshold>-1.5995919704437256e-01</stageThreshold>
      <weakClassifiers>
        <_>
          <internalNodes>
            0 -1 5 1.3308584690093994e-01</internalNodes>
          <leafValues>
            -8.5000002384185791e-01 7.5384616851806641e-01</leafValues></_>
        <_>
          <internalNodes>
            0 -1 33 -2.4594485759735107e-02</internalNodes>
          <leafValues>
            -9.1380536556243896e-01 7.0147275924682617e-01</leafValues></_></weakClassifiers></_>
    <!-- stage 5 -->
    <_>
      <maxWeakCount>2</maxWeakCount>
      <stageThreshold>-1.8677063286304474e-01</stageThreshold>
      <weakClassifiers>
        <_>
          <internalNodes>
            0 -1 18 -7.5428709387779236e-02</internalNodes>
          <leafValues>
            -9.2307692766189575e-01 7.9104477167129517e-01</leafValues></_>
        <_>
          <internalNodes>
            0 -1 6 5.4038971662521362e-02</internalNodes>
          <leafValues>
            -7.9931014776229858e-01 7.3630630970001221e-01</leafValues></_></weakClassifiers></_>
    <!-- stage 6 -->
    <_>
      <maxWeakCount>2</maxWeakCount>
      <stageThreshold>5.1948051899671555e-02</stageThreshold>
      <weakClassifiers>
        <_>
          <internalNodes>
            0 -1 31 -5.3512060549110174e-04</internalNodes>
          <leafValues>
            7.9411762952804565e-01 -9.4805192947387695e-01</leafValues></_>
        <_>
          <internalNodes>
            0 -1 22 1.1325913947075605e-03</internalNodes>
          <leafValues>
            -6.9116038084030151e-01 1.</leafValues></_></weakClassifiers></_>
    <!-- stage 7 -->
    <_>
      <maxWeakCount>1</maxWeakCount>
      <stageThreshold>8.0000001192092896e-01</stageThreshold>
      <weakClassifiers>
        <_>
          <internalNodes>
            0 -1 13 -2.5202861428260803e-01</internalNodes>
          <leafValues>
            8.0000001192092896e-01 -1.</leafValues></_></weakClassifiers></_>
    <!-- stage 8 -->
    <_>
      <maxWeakCount>2</maxWeakCount>
      <stageThreshold>5.2893005311489105e-02</stageThreshold>
      <weakClassifiers>
        <_>
          <internalNodes>
            0 -1 12 -2.3041735403239727e-03</internalNodes>
          <leafValues>
            9.2307692766189575e-01 -7.2043013572692871e-01</leafValues></_>
        <_>
          <internalNodes>
            0 -1 14 -1.6977006453089416e-04</internalNodes>
          <leafValues>
            8.3678239583969116e-01 -8.7018394470214844e-01</leafValues></_></weakClassifiers></_>
    <!-- stage 9 -->
    <_>
      <maxWeakCount>2</maxWeakCount>
      <stageThreshold>-2.4705631658434868e-02</stageThreshold>
      <weakClassifiers>
        <_>
          <internalNodes>
            0 -1 32 -6.5051056444644928e-03</internalNodes>
          <leafValues>
            -9.2592591047286987e-01 8.7500000000000000e-01</leafValues></_>
        <_>
          <internalNodes>
            0 -1 20 -1.4006493147462606e-03</internalNodes>
          <leafValues>
            9.0122032165527344e-01 -8.9831638336181641e-01</leafValues></_></weakClassifiers></_>
    <!-- stage 10 -->
    <_>
      <maxWeakCount>2</maxWeakCount>
      <stageThreshold>-9.6563182771205902e-02</stageThreshold>
      <weakClassifiers>
        <_>
          <internalNodes>
            0 -1 3 1.2768812477588654e-02</internalNodes>
          <leafValues>
            -8.8235294818878174e-01 9.3333333730697632e-01</leafValues></_>
        <_>
          <internalNodes>
            0 -1 24 1.0139451478607953e-04</internalNodes>
          <leafValues>
            7.8578978776931763e-01 -9.7716754674911499e-01</leafValues></_></weakClassifiers></_>
    <!-- stage 11 -->
    <_>
      <maxWeakCount>1</maxWeakCount>
      <stageThreshold>9.0909093618392944e-01</stageThreshold>
      <weakClassifiers>
        <_>
          <internalNodes>
            0 -1 25 -6.1623123474419117e-04</internalNodes>
          <leafValues>
            -1. 9.0909093618392944e-01</leafValues></_></weakClassifiers></_>
    <!-- stage 12 -->
    <_>
      <maxWeakCount>2</maxWeakCount>
      <stageThreshold>2.0983524620532990e-02</stageThreshold>
      <weakClassifiers>
        <_>
          <internalNodes>
            0 -1 19 7.7727797906845808e-04</internalNodes>
          <leafValues>
            -8.5542166233062744e-01 8.3870965242385864e-01</leafValues></_>
        <_>
          <internalNodes>
            0 -1 11 1.6642249829601496e-04</internalNodes>
          <leafValues>
            -7.3348820209503174e-01 8.7640523910522461e-01</leafValues></_></weakClassifiers></_>
    <!-- stage 13 -->
    <_>
      <maxWeakCount>1</maxWeakCount>
      <stageThreshold>7.0270270109176636e-01</stageThreshold>
      <weakClassifiers>
        <_>
          <internalNodes>
            0 -1 7 4.5306488871574402e-02</internalNodes>
          <leafValues>
            7.0270270109176636e-01 -1.</leafValues></_></weakClassifiers></_>
    <!-- stage 14 -->
    <_>
      <maxWeakCount>3</maxWeakCount>
      <stageThreshold>-7.5460636615753174e-01</stageThreshold>
      <weakClassifiers>
        <_>
          <internalNodes>
            0 -1 1 -4.6572950668632984e-03</internalNodes>
          <leafValues>
            -7.0212763547897339e-01 9.2156863212585449e-01</leafValues></_>
        <_>
          <internalNodes>
            0 -1 16 -1.0666323825716972e-02</internalNodes>
          <leafValues>
            8.1689733266830444e-01 -6.5743708610534668e-01</leafValues></_>
        <_>
          <internalNodes>
            0 -1 4 1.3828723691403866e-02</internalNodes>
          <leafValues>
            -7.7152448892593384e-01 6.0495841503143311e-01</leafValues></_></weakClassifiers></_>
    <!-- stage 15 -->
    <_>
      <maxWeakCount>2</maxWeakCount>
      <stageThreshold>-7.2902999818325043e-02</stageThreshold>
      <weakClassifiers>
        <_>
          <internalNodes>
            0 -1 29 -5.1743470132350922e-02</internalNodes>
          <leafValues>
            8.4313726425170898e-01 -6.5957444906234741e-01</leafValues></_>
        <_>
          <internalNodes>
            0 -1 27 -3.7113130092620850e-02</internalNodes>
          <leafValues>
            -9.1604024171829224e-01 6.5407699346542358e-01</leafValues></_></weakClassifiers></_>
    <!-- stage 16 -->
    <_>
      <maxWeakCount>3</maxWeakCount>
      <stageThreshold>-9.0530359745025635e-01</stageThreshold>
      <weakClassifiers>
        <_>
          <internalNodes>
            0 -1 0 -2.1310253068804741e-02</internalNodes>
          <leafValues>
            -8.2608693838119507e-01 5.0000000000000000e-01</leafValues></_>
        <_>
          <internalNodes>
            0 -1 26 8.3803618326783180e-04</internalNodes>
          <leafValues>
            -5.8446103334426880e-01 7.9156142473220825e-01</leafValues></_>
        <_>
          <internalNodes>
            0 -1 23 -1.8162471055984497e-01</internalNodes>
          <leafValues>
            -9.1931015253067017e-01 5.0524437427520752e-01</leafValues></_></weakClassifiers></_>
    <!-- stage 17 -->
    <_>
      <maxWeakCount>1</maxWeakCount>
      <stageThreshold>9.6875000000000000e-01</stageThreshold>
      <weakClassifiers>
        <_>
          <internalNodes>
            0 -1 15 -1.7101526260375977e-01</internalNodes>
          <leafValues>
            9.6875000000000000e-01 -1.</leafValues></_></weakClassifiers></_></stages>
  <features>
    <_>
      <rects>
        <_>
          0 0 1 24 -1.</_>
        <_>
          0 8 1 8 2.</_></rects>
      <tilted>0</tilted></_>
    <_>
      <rects>
        <_>
          0 0 6 1 -1.</_>
        <_>
          2 0 2 1 2.</_></rects>
      <tilted>0</tilted></_>
    <_>
      <rects>
        <_>
          0 0 2 24 -1.</_>
        <_>
          0 8 2 8 2.</_></rects>
      <tilted>0</tilted></_>
    <_>
      <rects>
        <_>
          0 0 4 22 -1.</_>
        <_>
          2 0 2 22 2.</_></rects>
      <tilted>0</tilted></_>
    <_>
      <rects>
        <_>
          0 0 14 4 -1.</_>
        <_>
          0 2 14 2 2.</_></rects>
      <tilted>0</tilted></_>
    <_>
      <rects>
        <_>
          0 0 24 8 -1.</_>
        <_>
          0 4 24 4 2.</_></rects>
      <tilted>0</tilted></_>
    <_>
      <rects>
        <_>
          0 1 6 22 -1.</_>
        <_>
          3 1 3 22 2.</_></rects>
      <tilted>0</tilted></_>
    <_>
      <rects>
        <_>
          0 3 18 6 -1.</_>
        <_>
          0 3 9 3 2.</_>
        <_>
          9 6 9 3 2.</_></rects>
      <tilted>0</tilted></_>
    <_>
      <rects>
        <_>
          0 12 4 11 -1.</_>
        <_>
          2 12 2 11 2.</_></rects>
      <tilted>0</tilted></_>
    <_>
      <rects>
        <_>
          0 15 4 3 -1.</_>
        <_>
          2 15 2 3 2.</_></rects>
      <tilted>0</tilted></_>
    <_>
      <rects>
        <_>
          0 20 15 4 -1.</_>
        <_>
          0 22 15 2 2.</_></rects>
      <tilted>0</tilted></_>
    <_>
      <rects>
        <_>
          0 21 6 3 -1.</_>
        <_>
          3 21 3 3 2.</_></rects>
      <tilted>0</tilted></_>
    <_>
      <rects>
        <_>
          2 22 22 2 -1.</_>
        <_>
          2 23 22 1 2.</_></rects>
      <tilted>0</tilted></_>
    <_>
      <rects>
        <_>
          4 0 9 21 -1.</_>
        <_>
          7 0 3 21 2.</_></rects>
      <tilted>0</tilted></_>
    <_>
      <rects>
        <_>
          5 14 15 2 -1.</_>
        <_>
          5 15 15 1 2.</_></rects>
      <tilted>0</tilted></_>
    <_>
      <rects>
        <_>
          5 14 18 9 -1.</_>
        <_>
          5 17 18 3 2.</_></rects>
      <tilted>0</tilted></_>
    <_>
      <rects>
        <_>
          5 18 5 6 -1.</_>
        <_>
          5 21 5 3 2.</_></rects>
      <tilted>0</tilted></_>
    <_>
      <rects>
        <_>
          6 0 5 4 -1.</_>
        <_>
          6 2 5 2 2.</_></rects>
      <tilted>0</tilted></_>
    <_>
      <rects>
        <_>
          6 0 18 3 -1.</_>
        <_>
          12 0 6 3 2.</_></rects>
      <tilted>0</tilted></_>
    <_>
      <rects>
        <_>
          6 2 1 6 -1.</_>
        <_>
          6 5 1 3 2.</_></rects>
      <tilted>0</tilted></_>
    <_>
      <rects>
        <_>
          6 5 18 1 -1.</_>
        <_>
          15 5 9 1 2.</_></rects>
      <tilted>0</tilted></_>
    <_>
      <rects>
        <_>
          6 12 15 12 -1.</_>
        <_>
          6 18 15 6 2.</_></rects>
      <tilted>0</tilted></_>
    <_>
      <rects>
        <_>
          7 1 2 11 -1.</_>
        <_>
          8 1 1 11 2.</_></rects>
      <tilted>0</tilted></_>
    <_>
      <rects>
        <_>
          7 15 11 9 -1.</_>
        <_>
          7 18 11 3 2.</_></rects>
      <tilted>0</tilted></_>
    <_>
      <rects>
        <_>
          10 10 1 8 -1.</_>
        <_>
          10 14 1 4 2.</_></rects>
      <tilted>0</tilted></_>
    <_>
      <rects>
        <_>
          13 2 1 6 -1.</_>
        <_>
          13 5 1 3 2.</_></rects>
      <tilted>0</tilted></_>
    <_>
      <rects>
        <_>
          14 1 5 2 -1.</_>
        <_>
          14 2 5 1 2.</_></rects>
      <tilted>0</tilted></_>
    <_>
      <rects>
        <_>
          15 21 9 3 -1.</_>
        <_>
          18 21 3 3 2.</_></rects>
      <tilted>0</tilted></_>
    <_>
      <rects>
        <_>
          18 6 6 5 -1.</_>
        <_>
          21 6 3 5 2.</_></rects>
      <tilted>0</tilted></_>
    <_>
      <rects>
        <_>
          18 7 6 16 -1.</_>
        <_>
          21 7 3 16 2.</_></rects>
      <tilted>0</tilted></_>
    <_>
      <rects>
        <_>
          20 4 4 20 -1.</_>
        <_>
          22 4 2 20 2.</_></rects>
      <tilted>0</tilted></_>
    <_>
      <rects>
        <_>
          22 1 2 16 -1.</_>
        <_>
          23 1 1 16 2.</_></rects>
      <tilted>0</tilted></_>
    <_>
      <rects>
        <_>
          22 1 2 3 -1.</_>
        <_>
          22 2 2 1 2.</_></rects>
      <tilted>0</tilted></_>
    <_>
      <rects>
        <_>
          23 0 1 21 -1.</_>
        <_>
          23 7 1 7 2.</_></rects>
      <tilted>0</tilted></_></features></cascade>
</opencv_storage>
